Date,0
2018-06-20,0.0030211817410179544
2018-06-21,-0.005457007750363718
2018-06-22,0.005545984103861609
2018-06-25,-0.010199829050711264
2018-06-26,0.002620003599580718
2018-06-27,-0.004906632378966082
2018-06-28,0.004866029757115828
2018-06-29,0.0015759336731419723
2018-07-02,0.0001997271919808908
2018-07-03,-0.0021183190194586084
2018-07-05,0.008343963313178744
2018-07-06,0.007661279504854309
2018-07-09,0.004898712857661172
2018-07-10,0.004505996503603764
2018-07-11,-0.006539183804492001
2018-07-12,0.006253638591771519
2018-07-13,0.0009346851450059729
2018-07-16,-0.0023461884631955083
2018-07-17,0.0026729126276451728
2018-07-18,-0.0002737535322226182
2018-07-19,-0.0009765301192422454
2018-07-20,-0.0023676509962639275
2018-07-23,-0.0007402686872781818
2018-07-24,0.004896976590468927
2018-07-25,0.008523415572301164
2018-07-26,-0.0016161621877702646
2018-07-27,-0.005697360916293673
2018-07-30,-0.004513839817410264
2018-07-31,0.007259110454824972
2018-08-01,-0.004146586602813165
2018-08-02,0.0024559980677181185
2018-08-03,0.0060609841415432
2018-08-06,0.003056493688486955
2018-08-07,0.0020551654359602456
2018-08-08,-0.002546833589190346
2018-08-09,-0.00032072586952451825
2018-08-10,-0.006877145009050228
2018-08-13,-0.003977219702492345
2018-08-14,0.006169362507633682
2018-08-15,-0.007100092819696082
2018-08-16,0.008266787129128246
2018-08-17,0.0037498409629548365
2018-08-20,0.0028491215729704454
2018-08-21,0.0011485937197859457
2018-08-22,-0.002035157666701473
2018-08-23,-0.0025196844684500365
2018-08-24,0.006672925930867754
2018-08-27,0.006272437382490472
2018-08-28,-0.00041010758842869086
2018-08-29,0.0048621872848200005
2018-08-30,-0.004822589262838391
2018-08-31,-0.0015731611556416905
2018-09-04,-0.0029921681268159
2018-09-05,0.0011547222179235635
2018-09-06,-0.0021574704894689995
2018-09-07,-0.0034229501943360487
2018-09-10,0.0022808753286844823
2018-09-11,0.0029187988520147454
2018-09-12,0.0009948115187367638
2018-09-13,0.004922083796988528
2018-09-14,-0.0008436882704204819
2018-09-17,-0.0022175130859730637
2018-09-18,0.0037917570492066815
2018-09-19,-0.00034519101332600925
2018-09-20,0.007529853250096545
2018-09-21,0.0001275142204157001
2018-09-24,-0.00644603250839652
2018-09-25,-0.0023494445209150273
2018-09-26,-0.0043016684550793
2018-09-27,0.0022100018161686813
2018-09-28,0.0009701797132952546
2018-10-01,0.0024912898603170453
2018-10-02,0.0007659855171450272
2018-10-03,-0.0015865359266134366
2018-10-04,-0.00588935070574861
2018-10-05,-0.0030706891063377634
2018-10-08,0.0027920190117240538
2018-10-09,-0.0033220989760717095
2018-10-10,-0.027215615942440593
2018-10-11,-0.021796579119135604
2018-10-12,0.009577139059508018
2018-10-15,-0.002439412348003191
2018-10-16,0.018383108841607793
2018-10-17,-0.0012292017657827
2018-10-18,-0.010732316593732437
2018-10-19,0.0012007050451182273
2018-10-22,-0.006209632162163464
2018-10-23,-0.006039760413521945
2018-10-24,-0.022290443714565657
2018-10-25,0.014273783485734244
2018-10-26,-0.017330870530599108
2018-10-29,-0.0023181075966358824
2018-10-30,0.017130818073595875
2018-10-31,0.005938135080209056
2018-11-01,0.010520692883837697
2018-11-02,-0.005311069546672709
2018-11-05,0.008102351585590138
2018-11-06,0.006988940796527762
2018-11-07,0.01780647491465879
2018-11-08,-0.003008798039369036
2018-11-09,-0.007371087278799
2018-11-12,-0.01478983083861662
2018-11-13,-0.001922267528609655
2018-11-14,-0.005419626278792827
2018-11-15,0.0071371783463562355
2018-11-16,0.004961949049205437
2018-11-19,-0.011902336090699265
2018-11-20,-0.017655551310066155
2018-11-21,0.0029271691168398545
2018-11-23,-0.007001751405336472
2018-11-26,0.012827769950180702
2018-11-27,0.002225075777748473
2018-11-28,0.018268874672832874
2018-11-29,4.918257692792735e-05
2018-11-30,0.007459129845841781
2018-12-03,0.010084372530631781
2018-12-04,-0.027225953620034552
2018-12-06,-0.0006657095735055547
2018-12-07,-0.0189796894493699
2018-12-10,-1.9249791653645312e-05
2018-12-11,0.00010545475528370924
2018-12-12,0.003187281722763055
2018-12-13,-0.0003331453972096728
2018-12-14,-0.014491062781926266
2018-12-17,-0.021854077730911445
2018-12-18,-0.0012702435621090179
2018-12-19,-0.0137654637390147
2018-12-20,-0.015532453240227754
2018-12-21,-0.01688171995579518
2018-12-24,-0.028763002396478676
2018-12-26,0.04469649532023328
2018-12-27,0.008785071956326773
2018-12-28,-0.0012911524012236
2018-12-31,0.007056679250482
2019-01-02,-0.00011239128352123675
2019-01-03,-0.018332719322400447
2019-01-04,0.03100656182239342
2019-01-07,0.006803120703620173
2019-01-08,0.010525735991333274
2019-01-09,0.0029411239020137175
2019-01-10,0.006011109728116564
2019-01-11,-0.0009127891864282816
2019-01-14,-0.005807058798835673
2019-01-15,0.008643445899188818
2019-01-16,0.0018517561607358
2019-01-17,0.008079455200250173
2019-01-18,0.012627092660545864
2019-01-22,-0.012389137163440601
2019-01-23,0.0009304187794963729
2019-01-24,0.0011800681149783817
2019-01-25,0.00778143095616752
2019-01-28,-0.004897683584900136
2019-01-29,0.0011428345667637457
2019-01-30,0.013432806275717609
2019-01-31,0.009543232100869745
2019-02-01,0.0001564429714654458
2019-02-04,0.005523504057830335
2019-02-05,0.004640687098210291
2019-02-06,-0.0037255012550842094
2019-02-07,-0.006763132899805855
2019-02-08,0.0009475899016882726
2019-02-11,0.0008823234495494637
2019-02-12,0.011116667989718483
2019-02-13,0.0035425788888202633
2019-02-14,-0.002134195009067709
2019-02-15,0.010653636309191356
2019-02-19,0.002335294588732291
2019-02-20,0.0024903371340338366
2019-02-21,-0.0033134529213450182
2019-02-22,0.005112392815361819
2019-02-25,-6.4469117757458855e-06
2019-02-26,-0.001584531941329827
2019-02-27,-0.0004414114393184909
2019-02-28,-0.002294058219381409
2019-03-01,0.00549375202316649
2019-03-04,-0.001775572231569291
2019-03-05,-0.0010934008269714547
2019-03-06,-0.005029027859785109
2019-03-07,-0.006611116423425673
2019-03-08,-0.0022231345107226546
2019-03-11,0.013551204767384637
2019-03-12,0.003398537508031764
2019-03-13,0.0059879265963809275
2019-03-14,-0.001048836127305873
2019-03-15,0.002894093229710855
2019-03-18,0.002964061438556437
2019-03-19,-0.0012378363556882913
2019-03-20,-0.001441404397053373
2019-03-21,0.010936587729912588
2019-03-22,-0.016694482209523583
2019-03-25,-3.747264686229089e-05
2019-03-26,0.007487442620620146
2019-03-27,-0.004416953268600363
2019-03-28,0.0037522543279610633
2019-03-29,0.005603661928498599
2019-04-01,0.009210069901982136
2019-04-02,0.00030645989692826373
2019-04-03,0.0012355268792928638
2019-04-04,0.003224373603326727
2019-04-05,0.0056943075320112085
2019-04-08,-8.219075268561812e-05
2019-04-09,-0.0051623279621842546
2019-04-10,0.002743012914538082
2019-04-11,0.0007960316257913998
2019-04-12,0.006685902744915235
2019-04-15,-0.0016235137993054637
2019-04-16,-0.0013225546142388819
2019-04-17,-0.0029414740031766732
2019-04-18,0.0017400239662861904
2019-04-22,4.531755509289098e-05
2019-04-23,0.007356435251892237
2019-04-24,-0.0015112027133946458
2019-04-25,-0.0019431421395530548
2019-04-26,0.004667033799031127
2019-04-29,-0.00011541439205981788
2019-04-30,0.003192139151228508
2019-05-01,-0.00882041329193668
2019-05-02,-0.002443456584149073
2019-05-03,0.008975048758467781
2019-05-06,-0.0046534178019150005
2019-05-07,-0.015016506659643629
2019-05-08,-0.0015697605929071731
2019-05-09,-0.0025019277371130366
2019-05-10,0.0071131415019381914
2019-05-13,-0.019374089622418635
2019-05-14,0.007058740440542255
2019-05-15,0.005090459092511191
2019-05-16,0.008555052357220492
2019-05-17,-0.005313318778950491
2019-05-20,-0.006711557582147491
2019-05-21,0.00881251017419611
2019-05-22,-0.0027874019407378545
2019-05-23,-0.010208594895336428
2019-05-24,0.0015187767567799361
2019-05-28,-0.009421604309654818
2019-05-29,-0.0071629955777125
2019-05-30,0.0017091514065887365
2019-05-31,-0.01011520299221418
2019-06-03,0.0026380107385230987
2019-06-04,0.01812715935515236
2019-06-05,0.00853191481572979
2019-06-06,0.007317366596376745
2019-06-07,0.007744107724365973
2019-06-10,0.0023041687541084277
2019-06-11,-0.00013176602021351826
2019-06-12,-0.0005581674325514912
2019-06-13,0.004855112610922274
2019-06-14,-0.0003894243185661455
2019-06-17,0.0008096912073734182
2019-06-18,0.007432786182958181
2019-06-19,0.002243151818423918
2019-06-20,0.0099576614372327
2019-06-21,-0.0013090809463836908
2019-06-24,-0.0017750248588400094
2019-06-25,-0.008092840128003563
2019-06-26,-0.003972477387162745
2019-06-27,0.0036388036930969634
2019-06-28,0.006102991660562246
2019-07-01,0.005535718620877109
2019-07-02,0.0035925642856665277
2019-07-03,0.007859695825164274
2019-07-05,-0.0018975438696133364
2019-07-08,-0.003599238300012518
2019-07-09,0.0002783995314176909
2019-07-10,0.004123673662814128
2019-07-11,0.0014105321727256271
2019-07-12,0.0041487239215806096
2019-07-15,-0.0001371413377007002
2019-07-16,-0.002661111576023054
2019-07-17,-0.00672424336121552
2019-07-18,0.0029699504988706634
2019-07-19,-0.005752970617736555
2019-07-22,0.0008867823236969366
2019-07-23,0.007212854673945227
2019-07-24,0.0031104140936373996
2019-07-25,-0.004566179728226546
2019-07-26,0.005634501317406563
2019-07-29,-0.0011831283007802359
2019-07-30,0.000230829459712109
2019-07-31,-0.009825583630449664
2019-08-01,-0.0075742304003406724
2019-08-02,-0.00560525836365871
2019-08-05,-0.02668006239913145
2019-08-06,0.011306992830967018
2019-08-07,0.0025309232417918635
2019-08-08,0.018198922233876078
2019-08-09,-0.005997917096763508
2019-08-12,-0.01072165749920319
2019-08-13,0.011463553891220056
2019-08-14,-0.027589711210608225
2019-08-15,0.0037905467729083364
2019-08-16,0.013344393574935958
2019-08-19,0.01163640838485992
2019-08-20,-0.007209957483640953
2019-08-21,0.0070869968065510455
2019-08-22,-9.647113740247266e-05
2019-08-23,-0.023618169170716474
2019-08-26,0.009733278474903783
2019-08-27,-0.002876504933434082
2019-08-28,0.006947953850490699
2019-08-29,0.011802868650822073
2019-08-30,0.0006582225905780275
2019-09-03,-0.0028235881902355995
2019-09-04,0.010361499609378691
2019-09-05,0.0085086242672106
2019-09-06,0.0012347817482927178
2019-09-09,0.0007794392527860447
2019-09-10,0.0009083880524573003
2019-09-11,0.0058502803487465735
2019-09-12,0.002956293833258736
2019-09-13,-0.0003285933826193818
2019-09-16,-0.0006266676908029095
2019-09-17,0.0032410008090089366
2019-09-18,-0.00012170335854520918
2019-09-19,0.00023128747902693641
2019-09-20,-0.003746121894214383
2019-09-23,0.0002927203874312545
2019-09-24,-0.0063341180875847725
2019-09-25,0.00438602741390221
2019-09-26,-0.001495388006717645
2019-09-27,-0.004255140642871682
2019-09-30,0.0036529042552461825
2019-10-01,-0.01298348703460651
2019-10-02,-0.017071011233234065
2019-10-03,0.007466748234076245
2019-10-04,0.01181903294966259
2019-10-07,-0.0043868447337406455
2019-10-08,-0.014313236278375174
2019-10-09,0.008213969215553393
2019-10-10,0.006260317425437082
2019-10-11,0.0092108947471621
2019-10-14,-0.0019777875707560908
2019-10-15,0.007474954370613073
2019-10-16,-0.0013868409177733275
2019-10-17,0.003341811346518454
2019-10-18,-0.002273259204819655
2019-10-21,0.006157363872492754
2019-10-22,-0.0010864796442433635
2019-10-23,0.0035793970945126
2019-10-24,-2.1097027216981793e-05
2019-10-25,0.0019798050234744644
2019-10-28,0.0013235193463386273
2019-10-29,0.0008960190128741999
2019-10-30,0.0022647997879495637
2019-10-31,-0.0031360775595976097
2019-11-01,0.008585718571255792
2019-11-04,0.0031818138846302817
2019-11-05,-0.0019822235556076636
2019-11-06,-0.0002956452000784912
2019-11-07,0.001390222761662455
2019-11-08,0.0009328671784224092
2019-11-11,-0.0023114010211590544
2019-11-12,0.0009338303770209726
2019-11-13,0.001056270359605009
2019-11-14,0.0026955141412222453
2019-11-15,0.005901313394911209
2019-11-18,0.0002605250242042728
2019-11-19,-0.0017537557493347547
2019-11-20,-0.0020004610374568274
2019-11-21,-0.0012703921137058268
2019-11-22,0.0012214709916557364
2019-11-25,0.005262434034459973
2019-11-26,0.003031501538046373
2019-11-27,0.003925793636212055
2019-11-29,-0.0037720461919465457
2019-12-02,-0.00834918274038222
2019-12-03,-0.005457567478104445
2019-12-04,0.006743837010942319
2019-12-05,0.0013777312458424543
2019-12-06,0.007958904269902707
2019-12-09,-0.0023139151453062277
2019-12-10,-0.001580400930408509
2019-12-11,0.0019303988789972088
2019-12-12,0.006683704781838782
2019-12-13,-0.00041870637846659115
2019-12-16,0.007139250152647645
2019-12-17,-0.0003624808273121546
2019-12-18,0.0017897788774753178
2019-12-19,0.004015037807931537
2019-12-20,0.005444502842743926
2019-12-23,0.0001225847016439272
2019-12-24,0.0003691920782357182
2019-12-26,0.004297707088594282
2019-12-27,-0.00018829195290748712
2019-12-30,-0.0044117474657705555
2019-12-31,0.003276076729866009
2020-01-02,0.003531950144513918
2020-01-03,-0.005347033993970517
2020-01-06,0.002833033077220482
2020-01-07,-0.0031869007941946904
2020-01-08,0.0029605693574262094
2020-01-09,0.005449749543919037
2020-01-10,-0.0021767639086978726
2020-01-13,0.006789027048983636
2020-01-14,-0.0008085846266666179
2020-01-15,0.0032685678214075366
2020-01-16,0.007225677008214363
2020-01-17,0.002645000131676409
2020-01-21,-0.0026109782586565176
2020-01-22,-0.0014742042156172545
2020-01-23,0.0016242465657214274
2020-01-24,-0.008101123679730317
2020-01-27,-0.014141350956187026
2020-01-28,0.007924891898520055
2020-01-29,-0.0012371364021978909
2020-01-30,0.0025922998085617186
2020-01-31,-0.01713065736260718
2020-02-03,0.005455840986600136
2020-02-04,0.011931816662866418
2020-02-05,0.012365190481755965
2020-02-06,0.0016154867449368546
2020-02-07,-0.005045573493805263
2020-02-10,0.0053296474397413725
2020-02-11,0.004133733697487309
2020-02-12,0.006440260180095236
2020-02-13,0.00014045477218139988
2020-02-14,0.001847561578298791
2020-02-18,-0.001988165209941279
2020-02-19,0.0020516634111330365
2020-02-20,-0.0012750192696484365
2020-02-21,-0.0071245250698491825
2020-02-24,-0.02946501729126646
2020-02-25,-0.03108674970121975
2020-02-26,-0.007116164018131073
2020-02-27,-0.044563925803820535
2020-02-28,-0.013062863363215237
2020-03-02,0.04594439059905822
2020-03-03,-0.022542768297276247
2020-03-04,0.04140227720559183
2020-03-05,-0.031925215311208115
2020-03-06,-0.019755685053979274
2020-03-09,-0.08368613049599634
2020-03-10,0.04477633134984129
2020-03-11,-0.04994114509727132
2020-03-12,-0.09823875172315816
2020-03-13,0.08527158024112755
2020-03-16,-0.11948523460434957
2020-03-17,0.05952603257695796
2020-03-18,-0.06063836625173251
2020-03-19,0.004067454157533553
2020-03-20,-0.042789052089315605
2020-03-23,-0.03740217630843707
2020-03-24,0.10081505930183718
2020-03-25,0.021061441088919438
2020-03-26,0.06158286696142316
2020-03-27,-0.028479227168973543
2020-03-30,0.029461915815668184
2020-03-31,-0.015994962965405382
2020-04-01,-0.046224798604618984
2020-04-02,0.025842256777568014
2020-04-03,-0.015130995182618718
2020-04-06,0.06746452472225067
2020-04-07,0.003360342223733255
2020-04-08,0.04190917828419997
2020-04-09,0.021985674225048834
2020-04-13,-0.016467357641563797
2020-04-14,0.02551509351024482
2020-04-15,-0.028131263223600902
2020-04-16,-0.002244910552199437
2020-04-17,0.03663240407180892
2020-04-20,-0.022271737741426455
2020-04-21,-0.0254906635833284
2020-04-22,0.021362728136706165
2020-04-23,0.0010365924338761095
2020-04-24,0.011390151017019201
2020-04-27,0.017997197518362804
2020-04-28,0.003032258714827282
2020-04-29,0.02319451586422787
2020-04-30,-0.014410230517321184
2020-05-01,-0.027582293875310526
2020-05-04,0.004255639326251564
2020-05-05,0.005798651727798654
2020-05-06,-0.013379759131806846
2020-05-07,0.012835067896531048
2020-05-08,0.02130301391963983
2020-05-11,-0.005456681703260528
2020-05-12,-0.020358378950567465
2020-05-13,-0.019716556197034954
2020-05-14,0.01078187213197649
2020-05-15,0.0023311436865022825
2020-05-18,0.040168803371558336
2020-05-19,-0.013497226330515904
2020-05-20,0.01704421612770127
2020-05-21,-0.007030500665979719
2020-05-22,0.003145756670309918
2020-05-26,0.01897500136225777
2020-05-27,0.017123521332429007
2020-05-28,-0.0004226067395952005
2020-05-29,0.001341631395303318
2020-06-01,0.007968041972437518
2020-06-02,0.010033344776358
2020-06-03,0.01758439959554571
2020-06-04,-0.0030658388748037086
2020-06-05,0.02906634993861928
2020-06-08,0.01734546663450823
2020-06-09,-0.013799239436828592
2020-06-10,-0.013320901868303446
2020-06-11,-0.06124080105474632
2020-06-12,0.014701768434104194
2020-06-15,0.009615237856695946
2020-06-16,0.01790920297118213
2020-06-17,-0.007588905174638683
2020-06-18,0.00012655212123546377
2020-06-19,-0.008015777174684428
2020-06-22,0.0033267477406720906
2020-06-23,0.0016976898884808183
2020-06-24,-0.02721578342087351
2020-06-25,0.009353700657393417
2020-06-26,-0.023391764362590325
2020-06-29,0.0171940964741486
2020-06-30,0.01285015512497182
2020-07-01,0.005493033722754027
2020-07-02,0.005293557712535491
2020-07-06,0.010537531446724074
2020-07-07,-0.010901282105983574
2020-07-08,0.003388418163428159
2020-07-09,-0.011862684793646373
2020-07-10,0.01469322065509629
2020-07-13,-0.005543805008110037
2020-07-14,0.015643175035005417
2020-07-15,0.011262562824172437
2020-07-16,-0.0011588313514046091
2020-07-17,0.004151827101914073
2020-07-20,-0.0019403358515730632
2020-07-21,0.00924031444851161
2020-07-22,0.006317060967351227
2020-07-23,-0.006296556079695773
2020-07-24,-0.004932933624898281
2020-07-27,0.004772336164153
2020-07-28,-0.003864791878990335
2020-07-29,0.012029291318966672
2020-07-30,-0.008562224937788783
2020-07-31,0.0028125377023345
2020-08-03,0.000837899686967827
2020-08-04,0.007973355954372027
2020-08-05,0.004968209321142301
2020-08-06,0.0035193231529928636
2020-08-07,0.006261383981784065
2020-08-10,0.007107710602750827
2020-08-11,-0.007013991128356501
2020-08-12,0.011001791571709864
2020-08-13,-0.003771780587418073
2020-08-14,0.0008421806869507341
2020-08-17,0.0015657056065230544
2020-08-18,-0.0010506567918666541
2020-08-19,-0.005518602860849928
2020-08-20,-0.0017175420726731816
2020-08-21,0.0010816838763003911
2020-08-24,0.012465945439997428
2020-08-25,-4.97464326669093e-05
2020-08-26,0.0028597076386117724
2020-08-27,0.003067097244055564
2020-08-28,0.0075080462187864265
2020-08-31,-0.006538897784701891
2020-09-01,0.0046428761475409185
2020-09-02,0.016768154606036492
2020-09-03,-0.024859556886951174
2020-09-04,-0.005008590131548637
2020-09-08,-0.021829872384995595
2020-09-09,0.016180726502482947
2020-09-10,-0.016681646331852738
2020-09-11,0.0030402847124679274
2020-09-14,0.013081298656750973
2020-09-15,0.003666650278924727
2020-09-16,0.0026886397923483905
2020-09-17,-0.007283854240163809
2020-09-18,-0.011860869659485872
2020-09-21,-0.0183620064920603
2020-09-22,0.006482103272434082
2020-09-23,-0.023235407689092036
2020-09-24,0.0032588352868775008
2020-09-25,0.012816940769851721
2020-09-28,0.015918582736533047
2020-09-29,-0.0072403944780610715
2020-09-30,0.00704959146375351
2020-10-01,0.0018617772845784459
2020-10-02,0.00014716766531997286
2020-10-05,0.016230938998565002
2020-10-06,-0.011319980896128417
2020-10-07,0.015067871808263163
2020-10-08,0.012950198864197165
2020-10-09,0.003851262457046154
2020-10-12,0.010411297250260673
2020-10-13,-0.008415762169219673
2020-10-14,-0.004439477705431272
2020-10-15,0.0008611571028839547
2020-10-16,-0.0001824644253720544
2020-10-19,-0.014729855952062445
2020-10-20,0.005375204370056935
2020-10-21,-0.0035232795605666094
2020-10-22,0.009137969056095572
2020-10-23,0.0034382155805576273
2020-10-26,-0.018874120693228656
2020-10-27,-0.0067836843902476926
2020-10-28,-0.03217424558217135
2020-10-29,0.011582220177304554
2020-10-30,-0.0067056793423351186
2020-11-02,0.01844140018216239
2020-11-03,0.01612170639826476
2020-11-04,0.008932749330828172
2020-11-05,0.016416864327698292
2020-11-06,-0.0026365692445477
2020-11-09,0.028587339959130386
2020-11-10,0.007639862591227836
2020-11-11,0.0020578315677459
2020-11-12,-0.012918460804408881
2020-11-13,0.017386803046771194
2020-11-16,0.01684232511955678
2020-11-17,-0.0039580867201924365
2020-11-18,-0.013427803828748192
2020-11-19,0.003554269607135546
2020-11-20,-0.005176554073801628
2020-11-23,0.010937494394846288
2020-11-24,0.01799202990058008
2020-11-25,-0.003708131446702263
2020-11-27,-1.612300664074555e-05
2020-11-30,-0.010757210991026517
2020-12-01,0.009447892722783508
2020-12-02,0.002620198465986928
2020-12-03,0.00023061217036709093
2020-12-04,0.012038741164703371
2020-12-07,-0.004461872635645636
2020-12-08,0.0027368518987255642
2020-12-09,-0.004349775719337309
2020-12-10,0.00011235899148661823
2020-12-11,-0.0023077219385007905
2020-12-14,-0.008545661920201038
2020-12-15,0.01432665885100038
2020-12-16,-0.0010953304526690544
2020-12-17,0.005774731202354599
2020-12-18,-0.0046503122278806095
2020-12-21,-0.007081371839127446
2020-12-22,-0.004307708918586283
2020-12-23,0.0034803687293794554
2020-12-24,0.003377508564395282
2020-12-28,0.005408570951975681
2020-12-29,-0.0027174547014970902
2020-12-30,0.0044106945650328735
2020-12-31,0.006110485730145291
2021-01-04,-0.014353105824959618
2021-01-05,0.009552293491391346
2021-01-06,0.014738672679348346
2021-01-07,0.00923683571148441
2021-01-08,0.004547895941511036
2021-01-11,-0.005097819212128937
2021-01-12,0.003960408973729582
2021-01-13,0.0018207427382554776
2021-01-14,0.000661460153448509
2021-01-15,-0.0066081829382095645
2021-01-19,0.005352596117890246
2021-01-20,0.010286206682634517
2021-01-21,-0.005721065394588026
2021-01-22,-0.0028057629895233
2021-01-25,0.0030842547089899547
2021-01-26,-0.0030212121024075626
2021-01-27,-0.02375545703242571
2021-01-28,0.009665766866647992
2021-01-29,-0.018610828010909394
2021-02-01,0.013115761688412482
2021-02-02,0.012863420085242544
2021-02-03,0.0038844330951532087
2021-02-04,0.008890782651699045
2021-02-05,0.006531254365143326
2021-02-08,0.008284434778188935
2021-02-09,-0.001094898904442
2021-02-10,0.0023761635970183906
2021-02-11,-0.0018590608171491635
2021-02-12,0.004988379751454181
2021-02-16,0.0002678322659751628
2021-02-17,0.002292382155399309
2021-02-18,-0.004601658960867364
2021-02-19,0.0008875608057688727
2021-02-22,-0.0010367295271179004
2021-02-23,0.0035688773064774452
2021-02-24,0.009942486636704233
2021-02-25,-0.019928440040722147
2021-02-26,-0.01029308547612229
2021-03-01,0.021426583184488965
2021-03-02,-0.004993417126201136
2021-03-03,-0.008251135181604927
2021-03-04,-0.00847616713954222
2021-03-05,0.020162768335453465
2021-03-08,0.0020922124262745725
2021-03-09,0.00798949542960098
2021-03-10,0.0104084419515301
2021-03-11,0.0068235724021543645
2021-03-12,0.005669794841981436
2021-03-15,0.0053569333684673
2021-03-16,-0.004716386141432418
2021-03-17,0.002310569464610246
2021-03-18,-0.011927222269048555
2021-03-19,-0.0014316704533493185
2021-03-22,0.0037349361022379637
2021-03-23,-0.007072581467993181
2021-03-24,-0.0016335869539236456
2021-03-25,0.007943659513808592
2021-03-26,0.015419281402396264
2021-03-29,-9.419450082889092e-05
2021-03-30,-0.0029799241982736177
2021-03-31,0.0006521469443816276
2021-04-01,0.009311866997976608
2021-04-05,0.009912328951225381
2021-04-06,0.0005309308803528545
2021-04-07,-0.000737212279718718
2021-04-08,0.0006453731863215181
2021-04-09,0.004451985425927955
2021-04-12,0.001310602698846891
2021-04-13,0.0020324667922313184
2021-04-14,0.0008119154335025084
2021-04-15,0.009003750530253582
2021-04-16,0.003915443742467973
2021-04-19,-0.00393426937982309
2021-04-20,-0.005409048606684819
2021-04-21,0.008768618562873727
2021-04-22,-0.008928525098018227
2021-04-23,0.009148505398272062
2021-04-26,0.0006414127183948088
2021-04-27,0.0003459207831755728
2021-04-28,0.0027809205991682177
2021-04-29,0.008407099099567146
2021-04-30,-0.005663197460059283
2021-05-03,0.005361516083711618
2021-05-04,-0.002500323630591045
2021-05-05,0.001471076037902655
2021-05-06,0.007818022545947809
2021-05-07,0.008258766089342411
2021-05-10,-0.0038676998591857083
2021-05-11,-0.0105153307241367
2021-05-12,-0.018779236472679775
2021-05-13,0.010956084950097438
2021-05-14,0.0141310711165209
2021-05-17,0.0002419150680499275
2021-05-18,-0.008164761904979438
2021-05-19,-0.0059722007332399995
2021-05-20,0.008111951962525081
2021-05-21,0.0008257703846803182
2021-05-24,0.008066006701993029
2021-05-25,-0.004602758252702081
2021-05-26,0.0023601691207740805
2021-05-27,0.0018325119634898725
2021-05-28,0.0017984084943636909
2021-06-01,0.004309177041059355
2021-06-02,0.0026392658963233454
2021-06-03,-0.001094363132293109
2021-06-04,0.0056685360666811095
2021-06-07,-0.0010686450757075728
2021-06-08,8.975407220668946e-05
2021-06-09,-0.0022384928003096275
2021-06-10,0.003066181501787718
2021-06-11,0.0009739922727002367
2021-06-14,-0.000575908020508409
2021-06-15,-0.00021282220712728198
2021-06-16,-0.007445663183590717
2021-06-17,-0.005566521460814346
2021-06-18,-0.016353426749252664
2021-06-21,0.017558373362901267
2021-06-22,0.0030549358499731725
2021-06-23,-0.002045595464164909
2021-06-24,0.005054013777372246
2021-06-25,0.005089658754895219
2021-06-28,-0.0013795528099522004
2021-06-29,-0.0024224810443344365
2021-06-30,0.002046108061763618
2021-07-01,0.006688499918005527
2021-07-02,0.004274639669091445
2021-07-06,-0.005642350598133364
2021-07-07,0.002927302440981945
2021-07-08,-0.00811813270583727
2021-07-09,0.012426336537377992
2021-07-12,0.0036350549373862996
2021-07-13,-0.006301130028430618
2021-07-14,-0.0005799085330312064
2021-07-15,-0.001450453000111982
2021-07-16,-0.0071775967482049915
2021-07-19,-0.017360758537799798
2021-07-20,0.014262193642950853
2021-07-21,0.007715788446644108
2021-07-22,-0.000927028106356527
2021-07-23,0.008948529144230654
2021-07-26,0.004186887520450409
2021-07-27,-0.0012035728996116545
2021-07-28,-0.0006480915395066727
2021-07-29,0.004700182287799445
2021-07-30,-0.004443657900607373
2021-08-02,-0.0021733880524482546
2021-08-03,0.008118186987827227
2021-08-04,-0.007765050220210962
2021-08-05,0.006501322782630528
2021-08-06,0.0034306210401542445
2021-08-09,-0.0018505041130555363
2021-08-10,0.0042955900655925194
2021-08-11,0.005411669687411145
2021-08-12,0.0015544993632828907
2021-08-13,0.0009123110032764274
2021-08-16,0.00030622221380765445
2021-08-17,-0.005915684968278872
2021-08-18,-0.010613390188676955
2021-08-19,-0.0018820712313973352
2021-08-20,0.006589145287962555
2021-08-23,0.007352474855707682
2021-08-24,0.001634822953305655
2021-08-25,0.002882763573553063
2021-08-26,-0.005993097659771682
2021-08-27,0.009532814924461848
2021-08-30,0.0018925970629533001
2021-08-31,-0.0006570442862091091
2021-09-01,0.0013006328694159452
2021-09-02,0.006045707860612981
2021-09-03,-0.0027044827191510363
2021-09-07,-0.006548965300902718
2021-09-08,8.257663924146349e-05
2021-09-09,-0.0048653483175612544
2021-09-10,-0.006826583870899191
2021-09-13,0.0043578205859306635
2021-09-14,-0.006755509407118135
2021-09-15,0.009207279721540283
2021-09-16,-0.0036468934714820917
2021-09-17,-0.009301826628434857
2021-09-20,-0.01587737464130121
2021-09-21,-0.0010100228534836546
2021-09-22,0.009545932087515592
2021-09-23,0.011234219106491536
2021-09-24,0.0008996344767772817
2021-09-27,0.0005736800526614453
2021-09-28,-0.01434997676678579
2021-09-29,0.003012975868725273
2021-09-30,-0.013452990326489419
2021-10-01,0.012075563517216482
2021-10-04,-0.0053011273292142905
2021-10-05,0.007222835811000208
2021-10-06,0.0034050348393065005
2021-10-07,0.0069970795488706
2021-10-08,-0.0006845926963947633
2021-10-11,-0.006052631594451574
2021-10-12,0.00046020914702327273
2021-10-13,0.0035975326673744184
2021-10-14,0.015565194303598852
2021-10-15,0.004860871070345872
2021-10-18,0.0007941264910188271
2021-10-19,0.007254523115677991
2021-10-20,0.0072785891913767185
2021-10-21,0.0003799079468104637
2021-10-22,0.0019007653060011996
2021-10-25,0.005210907016288909
2021-10-26,0.0014195172067245727
2021-10-27,-0.009129093787337846
2021-10-28,0.009232988731632854
2021-10-29,-0.001291196831709009
2021-11-01,0.004323833405178182
2021-11-02,0.0030243835081366368
2021-11-03,0.004397097492680046
2021-11-04,0.00018958827557994556
2021-11-05,0.005227218461652036
2021-11-08,9.091424872000026e-05
2021-11-09,-0.0009677041594598547
2021-11-10,-0.005738861426641755
2021-11-11,0.00010328420250789076
2021-11-12,0.004556879491926836
2021-11-15,0.0021864413454775367
2021-11-16,0.00034151405789728165
2021-11-17,-0.0030057792038385915
2021-11-18,-0.001075722991748691
2021-11-19,-0.005256120685479145
2021-11-22,0.0013500250544455636
2021-11-23,0.005111366929132918
2021-11-24,0.0018748181111546455
2021-11-26,-0.022472996166524963
2021-11-29,0.008811255444857518
2021-11-30,-0.02240295400885378
2021-12-01,-0.010766984705797827
2021-12-02,0.01862187689221677
2021-12-03,-0.004247285371880973
2021-12-06,0.013826460870697775
2021-12-07,0.015955541193791282
2021-12-08,0.0021075797599784548
2021-12-09,-0.005762133193604091
2021-12-10,0.00700749835950531
2021-12-13,-0.004772760155831191
2021-12-14,-0.004906703527359445
2021-12-15,0.010937553771674073
2021-12-16,-2.5233259240990552e-05
2021-12-17,-0.012006753979445528
2021-12-20,-0.010188999707058399
2021-12-21,0.014455400332177619
2021-12-22,0.00798523628614098
2021-12-23,0.0053792437342426455
2021-12-27,0.01320249258010099
2021-12-28,0.0019732005048240728
2021-12-29,0.0016201101766600454
2021-12-30,-0.0012680260478412275
2021-12-31,-0.00031526327647272707
2022-01-03,0.003416986879700409
2022-01-04,0.00554642687546142
2022-01-05,-0.013208366229148439
2022-01-06,0.00022319853220959988
2022-01-07,-0.00028449028466335423
2022-01-10,-0.00456353614435571
2022-01-11,0.008183956352389016
2022-01-12,0.0028976824943990546
2022-01-13,-0.007562334835537927
2022-01-14,-0.0010430154919877637
2022-01-18,-0.013206583724918293
2022-01-19,-0.007058111963968464
2022-01-20,-0.009504186575685393
2022-01-21,-0.015340403252709038
2022-01-24,0.0024013036265530005
2022-01-25,-0.006582759765824755
2022-01-26,-0.006318641372195874
2022-01-27,-0.003047038935173636
2022-01-28,0.017696578137931327
2022-01-31,0.01494068015132038
2022-02-01,0.00706086578655909
2022-02-02,0.00906633356489361
2022-02-03,-0.01810542258438843
2022-02-04,0.0002490100700435457
2022-02-07,-0.001421178646143009
2022-02-08,0.004329224355072773
2022-02-09,0.013675513882807149
2022-02-10,-0.015921067808966627
2022-02-11,-0.011550363859510382
2022-02-14,-0.006681773906977165
2022-02-15,0.010219860493068571
2022-02-16,0.0022376389639166454
2022-02-17,-0.014689307035028437
2022-02-18,-0.004757531295803454
2022-02-22,-0.00979810737529928
2022-02-23,-0.014238321189892201
2022-02-24,0.007919576128673828
2022-02-25,0.026121535234462024
2022-02-28,-0.0020659615445189276
2022-03-01,-0.012232743993001748
2022-03-02,0.018086973379373306
2022-03-03,-0.00012375512175582734
2022-03-04,-0.0006983834042995903
2022-03-07,-0.02208559913744261
2022-03-08,-0.007133152691709673
2022-03-09,0.017477431102931915
2022-03-10,0.0005539995387239636
2022-03-11,-0.01070356400386478
2022-03-14,-0.005191895109837656
2022-03-15,0.014016041256686
2022-03-16,0.015366826424948155
2022-03-17,0.014060761934310584
2022-03-18,0.00619022200271401
2022-03-21,0.0029399546105838355
2022-03-22,0.007941425907639327
2022-03-23,-0.008445082849630555
2022-03-24,0.011401332914427064
2022-03-25,0.008538946763150328
2022-03-28,0.0036890277557088446
2022-03-29,0.011533995720806718
2022-03-30,-0.0027456946920168092
2022-03-31,-0.01294894608461749
2022-04-01,0.005974346427227855
2022-04-04,0.003875886039673863
2022-04-05,-0.008302355277818809
2022-04-06,-0.0023094865834059277
2022-04-07,0.0036911959169731736
2022-04-08,0.0025311843016415456
2022-04-11,-0.013698345021693308
2022-04-12,-0.0013432142882368002
2022-04-13,0.009760848420719191
2022-04-14,-0.007087993136346991
2022-04-18,-0.000556901196293782
2022-04-19,0.013918088848463227
2022-04-20,0.0018966514728234534
2022-04-21,-0.014927669747319223
2022-04-22,-0.025269975988688867
2022-04-25,0.00012363963941083636
2022-04-26,-0.021861645598922456
2022-04-27,0.0014191544953737361
2022-04-28,0.020789480659365478
2022-04-29,-0.03309622626690019
2022-05-02,0.0015593080215252006
2022-05-03,0.007001538854116746
2022-05-04,0.02828242572026072
2022-05-05,-0.028770000349913893
2022-05-06,-0.004007562946908337
2022-05-09,-0.03182076715944887
2022-05-10,-0.0030454058723418903
2022-05-11,-0.00864044198655099
2022-05-12,0.0009929824774732
2022-05-13,0.021396492769337357
2022-05-16,-0.0013795722668417186
2022-05-17,0.017575973108277028
2022-05-18,-0.03584688326482154
2022-05-19,-0.003951173631324128
2022-05-20,0.0004941257472593459
2022-05-23,0.017588058318629238
2022-05-24,-0.002692659065416972
2022-05-25,0.008813472836573655
2022-05-26,0.016981174960150454
2022-05-27,0.021880377456393364
2022-05-31,-0.008314908030257754
2022-06-01,-0.007331265628854882
2022-06-02,0.016434799820454815
2022-06-03,-0.011707089615861537
2022-06-06,0.002957709215479722
2022-06-07,0.010078603813110645
2022-06-08,-0.012530737288235465
2022-06-09,-0.02278696338029267
2022-06-10,-0.024653882987376908
2022-06-13,-0.03952492262823368
2022-06-14,-0.0061642810673256995
2022-06-15,0.010060621620687852
2022-06-16,-0.03115500041219461
2022-06-17,-0.0026599477493303558
2022-06-21,0.023410524297602188
2022-06-22,-0.002296634155035973
2022-06-23,0.006221912012647418
2022-06-24,0.028383753292784464
2022-06-27,-0.0005344708330628639
2022-06-28,-0.013854653155988654
2022-06-29,-0.0036083759294237
2022-06-30,-0.006218616095242172
2022-07-01,0.013022738332087063
2022-07-05,-0.0064113843419898
2022-07-06,0.0015716197325353815
2022-07-07,0.012576323251873611
2022-07-08,-0.0025183945600225272
2022-07-11,-0.008748402428746072
2022-07-12,-0.0070728106477139265
2022-07-13,-0.004175160374473473
2022-07-14,-0.007121697357416945
2022-07-15,0.01694082201025312
2022-07-18,-0.004623039978275255
2022-07-19,0.025924503570968916
2022-07-20,0.0033117124767277285
2022-07-21,0.007144190378201071
2022-07-22,-0.004977598972541645
2022-07-25,0.00518605684670639
2022-07-26,-0.008453511758193
2022-07-27,0.018902069386989212
2022-07-28,0.015234985306930203
2022-07-29,0.013412656906464664
2022-08-01,-0.0034028881358614733
2022-08-02,-0.006949448692532781
2022-08-03,0.008902008878556654
2022-08-04,-0.0028677144218889634
2022-08-05,-0.00023977604545282705
2022-08-08,0.0020250567913199817
2022-08-09,-0.0006395435549666818
2022-08-10,0.01816511075614659
2022-08-11,0.0030288032147893634
2022-08-12,0.01565832305638876
2022-08-15,0.0024006708523046545
2022-08-16,0.002988772359596709
2022-08-17,-0.00625984066004708
2022-08-18,0.0031236053834685722
2022-08-19,-0.010652870464306146
2022-08-22,-0.01825270020274291
2022-08-23,-0.0003679115974084817
2022-08-24,0.004424414672005519
2022-08-25,0.013341245139325946
2022-08-26,-0.0284543970030858
2022-08-29,-0.004007725211605728
2022-08-30,-0.01330207327590152
2022-08-31,-0.0070158258508008
2022-09-01,0.0018329787571741906
2022-09-02,-0.008776156175754982
2022-09-06,-0.002364105583594055
2022-09-07,0.018497100336973295
2022-09-08,0.005624145282032918
2022-09-09,0.014635793550068837
2022-09-12,0.009499628822180917
2022-09-13,-0.038764171878976954
2022-09-14,0.0023015550607846003
2022-09-15,-0.011643850871505636
2022-09-16,-0.008648323136170952
2022-09-19,0.007535017450894882
2022-09-20,-0.013588705922645045
2022-09-21,-0.01663892964606489
2022-09-22,-0.0084894257108769
2022-09-23,-0.020506398803120253
2022-09-26,-0.01385689842368999
2022-09-27,-0.004131095535869781
2022-09-28,0.022461940227843365
2022-09-29,-0.020220035756486524
2022-09-30,-0.011242408059410772
2022-10-03,0.026531712810359175
2022-10-04,0.02966324981061437
2022-10-05,-0.005204526347701455
2022-10-06,-0.012008445998823773
2022-10-07,-0.023488835854632503
2022-10-10,-0.0052082087814302735
2022-10-11,-0.0046838099058202996
2022-10-12,-0.005233921599322036
2022-10-13,0.02575535498578652
2022-10-14,-0.023268739560568897
2022-10-17,0.024368305654197675
2022-10-18,0.013481244035230218
2022-10-19,-0.006887735306538318
2022-10-20,-0.010086502706814464
2022-10-21,0.022387698062696332
2022-10-24,0.0086908488906684
2022-10-25,0.018381530585209027
2022-10-26,-0.001823024298658527
2022-10-27,-0.0034179405592726737
2022-10-28,0.020067507338201354
2022-10-31,-0.005853354475661499
2022-11-01,-0.0010279712137884183
2022-11-02,-0.02282890941912734
2022-11-03,-0.0033801526009525546
2022-11-04,0.013886448190816237
2022-11-07,0.0066960058163033
2022-11-08,0.005629134241134401
2022-11-09,-0.018759305790112164
2022-11-10,0.050773849599287
2022-11-11,0.008275735675166944
2022-11-14,-0.008718928686707683
2022-11-15,0.008124229656172136
2022-11-16,-0.006790863642494371
2022-11-17,-0.005468175606390398
2022-11-18,0.006425638687466654
2022-11-21,-0.0014340281323227818
2022-11-22,0.013349765003163873
2022-11-23,0.0051921414144176364
2022-11-25,0.0009755620998565363
2022-11-28,-0.01621010932638608
2022-11-29,0.001903302576733646
2022-11-30,0.02563876727332787
2022-12-01,-0.00045659600552706365
2022-12-02,-9.468022895342739e-05
2022-12-05,-0.017904455874928456
2022-12-06,-0.012434020653823347
2022-12-07,-0.0014642717152287543
2022-12-08,0.005635949112935263
2022-12-09,-0.007317211470580537
2022-12-12,0.013639876591930646
2022-12-13,0.008592391017062835
2022-12-14,-0.006375752536271354
2022-12-15,-0.021105938757161827
2022-12-16,-0.011509399647531244
2022-12-19,-0.00854970365381519
2022-12-20,0.0018977925174203279
2022-12-21,0.014078953876659438
2022-12-22,-0.011667676726458681
2022-12-23,0.008455723474713371
2022-12-27,-0.0011591092680235634
2022-12-28,-0.012521715702882857
2022-12-29,0.015610858320154174
2022-12-30,-0.0034674073841645
2023-01-03,-0.0032582850132675547
2023-01-04,0.010592501206345408
2023-01-05,-0.010393366809660907
2023-01-06,0.023379557201698643
2023-01-09,-0.0005748028722051822
2023-01-10,0.0065749336046966094
2023-01-11,0.012711187593903927
2023-01-12,0.00401042422109931
2023-01-13,0.002651747626030755
2023-01-17,-0.0029365895992028543
2023-01-18,-0.017157793815674227
2023-01-19,-0.006608849087804428
2023-01-20,0.015699198663819552
2023-01-23,0.008425911389881335
2023-01-24,0.0005825543610881001
2023-01-25,0.00011254489637541804
2023-01-26,0.010197033755303371
2023-01-27,0.0012605611468018635
2023-01-30,-0.010982325973870756
2023-01-31,0.014533416539527454
2023-02-01,0.006395775716006109
2023-02-02,0.010720317427301783
2023-02-03,-0.012280359761290756
2023-02-06,-0.0041920873203732546
2023-02-07,0.009483348706728836
2023-02-08,-0.010056493888142344
2023-02-09,-0.0098979092705948
2023-02-10,0.006175439012520101
2023-02-13,0.009491984267041608
2023-02-14,-0.0016832067076496726
2023-02-15,0.002397209986521709
2023-02-16,-0.011825753683896755
2023-02-17,-0.0021765633032869995
2023-02-21,-0.018118313066808764
2023-02-22,-0.0013518360053522088
2023-02-23,0.003521305032691227
2023-02-24,-0.0077084852803855995
2023-02-27,0.0024075512469534095
2023-02-28,-0.004001315573575354
2023-03-01,-0.003666888821393009
2023-03-02,0.008850319387362663
2023-03-03,0.01501649491737987
2023-03-06,-0.001468445262747091
2023-03-07,-0.016326145315276406
2023-03-08,0.0016664456901446907
2023-03-09,-0.018742180134127283
2023-03-10,-0.015680144803979484
2023-03-13,-0.002028166343592972
2023-03-14,0.01485276397585188
2023-03-15,-0.009795196927148917
2023-03-16,0.012692623475605319
2023-03-17,-0.014201340961413627
2023-03-20,0.011323267724543819
2023-03-21,0.010913169451981371
2023-03-22,-0.019236960990787637
2023-03-23,-0.0013902948728890272
2023-03-24,0.009802768128185719
2023-03-27,0.004262935943205253
2023-03-28,0.0005523684717503003
2023-03-29,0.014258711159106983
2023-03-30,0.005625352753615127
2023-03-31,0.01413983270800081
2023-04-03,0.0044447917178665084
2023-04-04,-0.005891581085343891
2023-04-05,0.0005540557685670366
2023-04-06,0.0019492333915326274
2023-04-10,0.002561815207812782
2023-04-11,0.003048289630266528
2023-04-12,-0.0033758335534087368
2023-04-13,0.009661034600157855
2023-04-14,-0.004011616768194336
2023-04-17,0.0047457235654580175
2023-04-18,0.00044615119320523636
2023-04-19,-1.0950563271090934e-06
2023-04-20,-0.005542573964033236
2023-04-21,0.0006916344334818089
2023-04-24,0.002589618719749564
2023-04-25,-0.01409019706658422
2023-04-26,-0.00982539713437391
2023-04-27,0.019212076643724454
2023-04-28,0.008611966909782847
2023-05-01,-0.0018291615302696732
2023-05-02,-0.013585401163980243
2023-05-03,-0.007634117232252018
2023-05-04,-0.005759642122174608
2023-05-05,0.016524998338472038
2023-05-08,-0.0006809186358995728
2023-05-09,-0.0035215482566554814
2023-05-10,0.0023723705167605453
2023-05-11,-0.0036325425691126362
2023-05-12,9.218311768486353e-05
2023-05-15,0.0020119087843293083
2023-05-16,-0.012164291910296082
2023-05-17,0.010871008127530328
2023-05-18,0.005925492953869735
2023-05-19,-0.0007646217632106457
2023-05-22,-0.0006383465075997637
2023-05-23,-0.008988882379567182
2023-05-24,-0.008211181253506747
2023-05-25,-0.0012225325221333363
2023-05-26,0.009271461583585673
2023-05-30,-0.0020236375835652547
2023-05-31,-0.004079074053146646
2023-06-01,0.007576430516767118
2023-06-02,0.018488724031574425
2023-06-05,-0.0017871674683268368
2023-06-06,0.0035839262728325004
2023-06-07,0.004880854542085846
2023-06-08,0.0032023115589942183
2023-06-09,-0.0013777331192032635
2023-06-12,0.004870190782310672
2023-06-13,0.0074155512684199645
2023-06-14,-0.0008277057219807184
2023-06-15,0.011254001061511644
2023-06-16,-0.0013897017945530324
2023-06-20,-0.007832660866049081
2023-06-21,-0.0012603410256856998
2023-06-22,-0.001022299388420773
2023-06-23,-0.0079204341578659
2023-06-26,0.0029472721082593454
2023-06-27,0.009671555193095698
2023-06-28,-0.0011034917353409455
2023-06-29,0.005753439244621373
2023-06-30,0.009719211705269336
2023-07-03,0.003662198284987828
2023-07-05,-0.001967443290964118
2023-07-06,-0.009153529358884619
2023-07-07,-0.000855195889711454
2023-07-10,0.0032830904088208272
2023-07-11,0.009901790516677509
2023-07-12,0.0071311598942054195
2023-07-13,0.005514269876882127
2023-07-14,-0.0032437629030056094
2023-07-17,-0.00016961256285079077
2023-07-18,0.004304378697652555
2023-07-19,0.0040133870880010815
2023-07-20,-0.0007107648325980639
2023-07-21,0.0021405017502294367
2023-07-24,0.00453566329461371
2023-07-25,0.0019476110449190272
2023-07-26,0.0014554436646143274
2023-07-27,-0.008543651121520583
2023-07-28,0.006971083728091473
2023-07-31,0.0030979217213139816
2023-08-01,-0.0037987852954444634
2023-08-02,-0.00962435949643902
2023-08-03,-0.004571121164910582
2023-08-04,-0.004288586651329891
2023-08-07,0.008624562695992564
2023-08-08,-0.003412759467761518
2023-08-09,-0.002657480850904827
2023-08-10,-0.0003914589878530454
2023-08-11,0.0014444504227021815
2023-08-14,0.0006765063498155
2023-08-15,-0.012855679031644246
2023-08-16,-0.006727184382319563
2023-08-17,-0.006234452212648109
2023-08-18,0.0015211386864117905
2023-08-21,0.0007913496422702455
2023-08-22,-0.0021161286411693642
2023-08-23,0.008161523462208808
2023-08-24,-0.01052273131873449
2023-08-25,0.0064975585180179355
2023-08-28,0.006081638456956592
2023-08-29,0.01190966768849761
2023-08-30,0.002204145352822209
2023-08-31,-0.0029915491823061633
2023-09-01,0.002018996497588863
2023-09-05,-0.007293589980222526
2023-09-06,-0.0032214879907586456
2023-09-07,0.00030102472594192696
2023-09-08,0.0014813714961478728
2023-09-11,0.0057707147941060185
2023-09-12,-0.0019917797662938274
2023-09-13,-0.00011234256076628154
2023-09-14,0.01109346000975659
2023-09-15,-0.010032988795883465
2023-09-18,-0.0007767266361682273
2023-09-19,-0.0029621076315981816
2023-09-20,-0.006003291537364253
2023-09-21,-0.017120708450928293
2023-09-22,-0.0032366733020341727
2023-09-25,0.0034896195928442644
2023-09-26,-0.014508700123056563
2023-09-27,-0.0009340138644522641
2023-09-28,0.004481041778866609
2023-09-29,-0.0034969671460135716
2023-10-02,-0.009569557110898038
2023-10-03,-0.00942173520355971
2023-10-04,0.004953721654357718
2023-10-05,-0.0034092604500092004
2023-10-06,0.009531450545707582
2023-10-09,0.008667786023506154
2023-10-10,0.006870258927621792
2023-10-11,0.004019493677332336
2023-10-12,-0.009006190758314147
2023-10-13,-0.00024436246933900926
2023-10-16,0.010713704293109274
2023-10-17,0.002220217372522782
2023-10-18,-0.013168711850504545
2023-10-19,-0.010909321987752036
2023-10-20,-0.010864043206709783
2023-10-23,-0.005069843654949137
2023-10-24,0.008310686534950464
2023-10-25,-0.01148114150368439
2023-10-26,-0.004575160850303173
2023-10-27,-0.009449409788579445
2023-10-30,0.010573630262650098
2023-10-31,0.007620604522582438
2023-11-01,0.006533866113961718
2023-11-02,0.020779540820511463
2023-11-03,0.009362589959765608
2023-11-06,-0.0022451828548332724
2023-11-07,-0.0027794462093641645
2023-11-08,-0.001317321418776418
2023-11-09,-0.008617176711503728
2023-11-10,0.012426744040721527
2023-11-13,-0.0009079213186801091
2023-11-14,0.023479549338113446
2023-11-15,0.002311908692104291
2023-11-16,-0.0014616236597836908
2023-11-17,0.0033798752656582086
2023-11-20,0.004654837683752564
2023-11-21,-0.0006861020252542638
2023-11-22,0.0038040237040795817
2023-11-24,0.0022887092862782722
2023-11-27,-0.002033555423590146
2023-11-28,0.0016106193771678998
2023-11-29,-0.0007842392665350727
2023-11-30,0.0061846850413977555
2023-12-01,0.009014745114977492
2023-12-04,-0.0033555289302166363
2023-12-05,-0.005599727350708873
2023-12-06,-0.0017289806880489186
2023-12-07,0.004467207723349891
2023-12-08,0.0028605907588254817
2023-12-11,0.004881387066976491
2023-12-12,0.0018986213772457178
2023-12-13,0.01775271962399058
2023-12-14,0.007202955475505618
2023-12-15,-0.004404768348545127
2023-12-18,0.003779323428744408
2023-12-19,0.007226595438802454
2023-12-20,-0.015130695510836583
2023-12-21,0.009112918647077872
2023-12-22,0.002749480327736573
2023-12-26,0.005128175290472801
2023-12-27,0.0018332297080973425
2023-12-28,-7.136333760582748e-05
2023-12-29,-0.0031712946818885823
2024-01-02,0.0013312244936316273
2024-01-03,-0.007407184229177347
2024-01-04,-0.0031996329888629546
2024-01-05,0.0010921572152503
2024-01-08,0.009136700582915118
2024-01-09,-0.004888218059758681
2024-01-10,0.0022939940584012545
2024-01-11,-0.0035784658850268537
2024-01-12,0.0018553499102362632
2024-01-16,-0.007736945407422346
2024-01-17,-0.00723290839627819
2024-01-18,0.0032993865504536727
2024-01-19,0.007189147909203464
2024-01-22,0.0018386454795020998
2024-01-23,0.002202613164455645
2024-01-24,-0.003729101599831709
2024-01-25,0.00867752161407151
2024-01-26,0.001382338436207891
2024-01-29,0.006479955570385618
2024-01-30,0.000964698086264709
2024-01-31,-0.012506408216946908
2024-02-01,0.013384909842996512
2024-02-02,0.0035816949935402174
2024-02-05,-0.009898841764780755
2024-02-06,0.005669969347672118
2024-02-07,0.005053238222242609
2024-02-08,0.0011821841434722182
2024-02-09,0.0008488776098869818
2024-02-12,0.0033350253789007907
2024-02-13,-0.013979583022559817
2024-02-14,0.007966855933896518
2024-02-15,0.01304821864169683
2024-02-16,-0.0038380619420125637
2024-02-20,-0.0030312242515313087
2024-02-21,0.005243260771223308
2024-02-22,0.010236265444566598
2024-02-23,0.0015022952733804364
2024-02-26,-0.0054228935518276815
2024-02-27,0.0030351352827424727
2024-02-28,0.0011499990612471361
2024-02-29,0.003675088220681963
2024-03-01,0.0058752555234867915
2024-03-04,0.0003278182527659905
2024-03-05,-0.00651064026420329
2024-03-06,0.005190263309726945
2024-03-07,0.007618935880064446
2024-03-08,-0.0016562154653249907
2024-03-11,0.0014359522789986
2024-03-12,0.0038634886982645096
2024-03-13,0.002167009543390701
2024-03-14,-0.0044704827256964
2024-03-15,-0.003264524853606709
2024-03-18,0.0051494669639424815
2024-03-19,0.0052453937427815265
2024-03-20,0.0069648844554332364
2024-03-21,0.003566789460784173
2024-03-22,-0.004196099515392727
2024-03-25,-0.0015783054241606364
2024-03-26,-0.0022740143790268004
2024-03-27,0.013669554157297946
2024-03-28,0.0024581622206296273
2024-04-01,-0.004102902003271964
2024-04-02,-0.005056272419880246
2024-04-03,0.0011979660004090545
2024-04-04,-0.009129402530336155
2024-04-05,0.008211630243742572
2024-04-08,0.0014529549630316997
2024-04-09,0.0029117372240390817
2024-04-10,-0.013190992259091955
2024-04-11,0.0019929518147421455
2024-04-12,-0.013616093073966573
2024-04-15,-0.009759273504776282
2024-04-16,-0.00555359119339029
2024-04-17,-0.0008090300036768909
2024-04-18,-0.00045210422874268895
2024-04-19,0.0014302500553026543
2024-04-22,0.006597143650944228
2024-04-23,0.008070976483841873
2024-04-24,0.0020239972147655274
2024-04-25,-0.003646814773162127
2024-04-26,0.003008601024454182
2024-04-29,0.0061548383569824915
2024-04-30,-0.015034669678555991
2024-05-01,-0.001177667983054964
2024-05-02,0.0066637230763313
2024-05-03,0.007819955814293109
2024-05-06,0.0075291392773640005
2024-05-07,0.004437464699562282
2024-05-08,-0.0009044423421810547
2024-05-09,0.009978229121399227
2024-05-10,0.000283448423131627
2024-05-13,-0.0010154549676308546
2024-05-14,0.0033739851709698007
2024-05-15,0.008709502076959572
2024-05-16,-0.0017055697921189545
2024-05-17,0.003265350489529291
2024-05-20,-0.002409897895944073
2024-05-21,0.001899071327969591
2024-05-22,-0.0057234698663411274
2024-05-23,-0.012746344803743792
2024-05-24,0.005623074706043971
2024-05-28,-0.0036465447175632907
2024-05-29,-0.009963031531119356
2024-05-30,0.003098931373108582
2024-05-31,0.013565011093920469
2024-06-03,-0.0048394462469084545
2024-06-04,-1.3269504464672881e-05
2024-06-05,0.005033982426012863
2024-06-06,0.00018520549286569105
2024-06-07,-0.003597858432945637
2024-06-10,0.0031670942021726546
2024-06-11,-0.0014025040049343363
2024-06-12,0.0015995596295450636
2024-06-13,-0.0008049407133056453
2024-06-14,-0.002819940597838991
2024-06-17,0.005424025426344772
2024-06-18,0.0012473291530653635
2024-06-20,0.0024427861112175367
2024-06-21,0.00017352805970846367
2024-06-24,0.005194780975615127
2024-06-25,-0.003088520254397864
2024-06-26,-0.0015621877116904547
2024-06-27,0.0014977612434659818
2024-06-28,-0.0019745317064461003
2024-07-01,-0.00416950405693711
2024-07-02,0.005841059783833654
2024-07-03,0.0025674472470717637
2024-07-05,0.003471356028929172
2024-07-08,-0.0005039446607018728
2024-07-09,-0.00041944994459559105
2024-07-10,0.008329109021383336
2024-07-11,0.0037720397785575995
2024-07-12,0.005934616075608436
2024-07-15,0.0008441390244786996
2024-07-16,0.010778853919188473
2024-07-17,-0.0037384749135130095
2024-07-18,-0.006865889658840721
2024-07-19,-0.005709814713978273
2024-07-22,0.006948021919863518
2024-07-23,-0.0030865982221476365
2024-07-24,-0.013754048398054962
2024-07-25,-0.001294390248196518
2024-07-26,0.01247235267011612
2024-07-29,0.0020932403995000907
2024-07-30,0.0006081612606660823
2024-07-31,0.008916318430604909
2024-08-01,-0.00617878311279431
2024-08-02,-0.014839685747500874
2024-08-05,-0.025701191093221446
2024-08-06,0.010727965335333373
2024-08-07,-0.0057129798702184546
2024-08-08,0.01781989897344778
2024-08-09,0.0033784376584541907
2024-08-12,-0.0023199961137608635
2024-08-13,0.010670976776367753
2024-08-14,0.0025096298668477275
2024-08-15,0.012167996502021227
2024-08-16,0.0018977214163210638
2024-08-19,0.007742081767429528
2024-08-20,-0.0030195687451189373
2024-08-21,0.005385809766551073
2024-08-22,-0.0035194605942965086
2024-08-23,0.010775146023843146
2024-08-26,0.0008905088267786087
2024-08-27,-0.0003343135135392456
2024-08-28,-0.004123898269623155
2024-08-29,0.0021124853180199544
2024-08-30,0.009275914775862908
2024-09-03,-0.013559072823067697
2024-09-04,-0.0006168751063286998
2024-09-05,-0.004388376640373928
2024-09-06,-0.012464356665673264
2024-09-09,0.010833515128610718
2024-09-10,0.0025096468614359906
2024-09-11,0.002424164520280009
2024-09-12,0.007291985840441556
2024-09-13,0.0072305452469304645
2024-09-16,0.005967785753963937
2024-09-17,8.16882315063275e-05
2024-09-18,-0.003102186986548118
2024-09-19,0.01007037255051429
2024-09-20,0.00010990874244245444
2024-09-23,0.005965606037602636
2024-09-24,0.0017116181681843907
2024-09-25,-0.0047304090756268725
2024-09-26,0.0021163148546301993
2024-09-27,0.003061561389384837
2024-09-30,0.0030898771493501633
2024-10-01,-0.0017045743926901178
2024-10-02,-0.0011000442090489094
2024-10-03,-0.0039842040690675
2024-10-04,0.0063171239132236824
2024-10-07,-0.008605606157726818
2024-10-08,0.002581030572209336
2024-10-09,0.005220396476332172
2024-10-10,-0.002835025892443464
2024-10-11,0.007828970774821854
2024-10-14,0.006244363653427573
2024-10-15,-0.004111383908037219
2024-10-16,0.006568911157053562
2024-10-17,-0.0020056165844036817
2024-10-18,0.0035107143954204822
2024-10-21,-0.006710853702343855
2024-10-22,-0.002025400685023918
2024-10-23,-0.003325018056925255
2024-10-24,0.0006743479069588454
2024-10-25,-0.0041815389690828915
2024-10-28,0.003646446044761682
2024-10-29,-0.004955287139180645
2024-10-30,-0.00027314709303441823
2024-10-31,-0.009634198276866655
2024-11-01,-0.0002967957951533453
2024-11-04,9.114427527104522e-05
2024-11-05,0.0108599782572935
2024-11-06,0.01675438266577693
2024-11-07,0.004149223658817736
2024-11-08,0.0073796101432596906
2024-11-11,0.0025774240631873456
2024-11-12,-0.007122783380034973
2024-11-13,0.0022561767756452728
2024-11-14,-0.006659512876585136
2024-11-15,-0.006700719960278945
2024-11-18,0.006392968131919682
2024-11-19,0.0004699062814641272
2024-11-20,0.002097886796467109
2024-11-21,0.008898911328656453
2024-11-22,0.005207693896211646
2024-11-25,0.004355565470588471
2024-11-26,0.003363556162454709
2024-11-27,-0.0005600549581281637
2024-11-29,0.0041371366485952014
2024-12-02,-0.0037804318997380904
2024-12-03,-0.002549609182277873
2024-12-04,-0.0008704851423219368
2024-12-05,-0.002194353252156354
2024-12-06,-0.0012590127071327548
2024-12-09,-0.0058540204342224815
2024-12-10,-0.0035524327673279814
2024-12-11,0.0014727174561040273
2024-12-12,-0.0040108058610164
2024-12-13,-0.0024473514446037552
2024-12-16,-0.003148824700245818
2024-12-17,-0.004607236589015454
2024-12-18,-0.028504904159152047
2024-12-19,-0.004320033786623628
2024-12-20,0.011095497667809536
2024-12-23,0.0035498292625146823
2024-12-24,0.009023364762284101
2024-12-26,6.956543524988187e-05
2024-12-27,-0.007226871023471618
2024-12-30,-0.009584916743498909
2024-12-31,0.0009409140470932275
